<?xml version="1.0"?>
<opencv_storage>
<cascade>
  <stageType>BOOST</stageType>
  <featureType>HAAR</featureType>
  <height>25</height>
  <width>15</width>
  <stageParams>
    <boostType>GAB</boostType>
    <minHitRate>9.9500000476837158e-01</minHitRate>
    <maxFalseAlarm>0.</maxFalseAlarm>
    <weightTrimRate>9.4999998807907104e-01</weightTrimRate>
    <maxDepth>1</maxDepth>
    <maxWeakCount>100</maxWeakCount></stageParams>
  <featureParams>
    <maxCatCount>0</maxCatCount>
    <featSize>1</featSize>
    <mode>BASIC</mode></featureParams>
  <stageNum>2</stageNum>
  <stages>
    <!-- stage 0 -->
    <_>
      <maxWeakCount>46</maxWeakCount>
      <stageThreshold>1.3695761561393738e-01</stageThreshold>
      <weakClassifiers>
        <_>
          <internalNodes>
            0 -1 6 -1.7802543938159943e-02</internalNodes>
          <leafValues>
            1.2122143507003784e+00 -7.0613491535186768e-01</leafValues></_>
        <_>
          <internalNodes>
            0 -1 80 -2.8465385548770428e-03</internalNodes>
          <leafValues>
            5.4385101795196533e-01 -5.5257976055145264e-01</leafValues></_>
        <_>
          <internalNodes>
            0 -1 87 2.1347761154174805e-02</internalNodes>
          <leafValues>
            -3.1055518984794617e-01 6.1885869503021240e-01</leafValues></_>
        <_>
          <internalNodes>
            0 -1 17 2.0967321470379829e-03</internalNodes>
          <leafValues>
            -3.3164697885513306e-01 5.7773399353027344e-01</leafValues></_>
        <_>
          <internalNodes>
            0 -1 7 -3.4290761686861515e-03</internalNodes>
          <leafValues>
            6.2600678205490112e-01 -3.5485187172889709e-01</leafValues></_>
        <_>
          <internalNodes>
            0 -1 18 4.7903276979923248e-02</internalNodes>
          <leafValues>
            -1.6461944580078125e-01 7.8624373674392700e-01</leafValues></_>
        <_>
          <internalNodes>
            0 -1 84 -3.1722456216812134e-02</internalNodes>
          <leafValues>
            4.6068310737609863e-01 -3.2343474030494690e-01</leafValues></_>
        <_>
          <internalNodes>
            0 -1 58 6.3897119835019112e-03</internalNodes>
          <leafValues>
            1.4977574348449707e-01 -1.5735298395156860e+00</leafValues></_>
        <_>
          <internalNodes>
            0 -1 68 1.5482711605727673e-02</internalNodes>
          <leafValues>
            -2.1467499434947968e-01 5.5720841884613037e-01</leafValues></_>
        <_>
          <internalNodes>
            0 -1 30 -3.2898306380957365e-04</internalNodes>
          <leafValues>
            3.4809482097625732e-01 -3.6837932467460632e-01</leafValues></_>
        <_>
          <internalNodes>
            0 -1 2 9.4470940530300140e-03</internalNodes>
          <leafValues>
            -1.9262599945068359e-01 7.4884754419326782e-01</leafValues></_>
        <_>
          <internalNodes>
            0 -1 21 -4.9310290813446045e-01</internalNodes>
          <leafValues>
            6.6688740253448486e-01 -2.0506317913532257e-01</leafValues></_>
        <_>
          <internalNodes>
            0 -1 44 -3.9204661734402180e-03</internalNodes>
          <leafValues>
            4.2909827828407288e-01 -2.5882184505462646e-01</leafValues></_>
        <_>
          <internalNodes>
            0 -1 3 5.6832935661077499e-03</internalNodes>
          <leafValues>
            -3.5041034221649170e-01 3.1233826279640198e-01</leafValues></_>
        <_>
          <internalNodes>
            0 -1 28 4.8277815803885460e-03</internalNodes>
          <leafValues>
            -1.6734355688095093e-01 8.5346949100494385e-01</leafValues></_>
        <_>
          <internalNodes>
            0 -1 13 4.2133666574954987e-02</internalNodes>
          <leafValues>
            -1.9880492985248566e-01 7.0209848880767822e-01</leafValues></_>
        <_>
          <internalNodes>
            0 -1 48 -2.9263594187796116e-03</internalNodes>
          <leafValues>
            3.9356157183647156e-01 -2.7562248706817627e-01</leafValues></_>
        <_>
          <internalNodes>
            0 -1 99 -1.4320990070700645e-02</internalNodes>
          <leafValues>
            7.0648407936096191e-01 -1.5355190634727478e-01</leafValues></_>
        <_>
          <internalNodes>
            0 -1 15 -9.4134057871997356e-04</internalNodes>
          <leafValues>
            4.4550088047981262e-01 -2.1166414022445679e-01</leafValues></_>
        <_>
          <internalNodes>
            0 -1 47 -5.9300772845745087e-03</internalNodes>
          <leafValues>
            4.7827020287513733e-01 -1.9842943549156189e-01</leafValues></_>
        <_>
          <internalNodes>
            0 -1 72 2.1658706828020513e-04</internalNodes>
          <leafValues>
            -2.2134970128536224e-01 4.2706131935119629e-01</leafValues></_>
        <_>
          <internalNodes>
            0 -1 76 2.4189677089452744e-02</internalNodes>
          <leafValues>
            -1.6477748751640320e-01 5.4242432117462158e-01</leafValues></_>
        <_>
          <internalNodes>
            0 -1 5 -8.4305158816277981e-04</internalNodes>
          <leafValues>
            2.3036214709281921e-01 -4.3631088733673096e-01</leafValues></_>
        <_>
          <internalNodes>
            0 -1 77 4.8037454485893250e-02</internalNodes>
          <leafValues>
            -1.7178988456726074e-01 6.2889927625656128e-01</leafValues></_>
        <_>
          <internalNodes>
            0 -1 46 -2.6881620287895203e-03</internalNodes>
          <leafValues>
            -1.4879099130630493e+00 9.9918633699417114e-02</leafValues></_>
        <_>
          <internalNodes>
            0 -1 56 -5.9102106839418411e-02</internalNodes>
          <leafValues>
            6.6407704353332520e-01 -1.6498915851116180e-01</leafValues></_>
        <_>
          <internalNodes>
            0 -1 52 -1.0243864730000496e-02</internalNodes>
          <leafValues>
            6.8601226806640625e-01 -1.4285615086555481e-01</leafValues></_>
        <_>
          <internalNodes>
            0 -1 37 -1.7461380921304226e-03</internalNodes>
          <leafValues>
            -9.6341997385025024e-01 1.2046748399734497e-01</leafValues></_>
        <_>
          <internalNodes>
            0 -1 98 2.3020499793346971e-04</internalNodes>
          <leafValues>
            -3.6449718475341797e-01 2.5851517915725708e-01</leafValues></_>
        <_>
          <internalNodes>
            0 -1 92 -1.3056623283773661e-03</internalNodes>
          <leafValues>
            -8.7139707803726196e-01 1.2785616517066956e-01</leafValues></_>
        <_>
          <internalNodes>
            0 -1 20 -1.5859600901603699e-01</internalNodes>
          <leafValues>
            7.9392731189727783e-01 -1.2419513612985611e-01</leafValues></_>
        <_>
          <internalNodes>
            0 -1 26 2.0972909405827522e-03</internalNodes>
          <leafValues>
            -2.8599983453750610e-01 3.0428642034530640e-01</leafValues></_>
        <_>
          <internalNodes>
            0 -1 9 -1.0949547588825226e-01</internalNodes>
          <leafValues>
            7.3996955156326294e-01 -1.4045131206512451e-01</leafValues></_>
        <_>
          <internalNodes>
            0 -1 12 -1.8956654239445925e-03</internalNodes>
          <leafValues>
            4.3995252251625061e-01 -2.0003631711006165e-01</leafValues></_>
        <_>
          <internalNodes>
            0 -1 40 -4.8847700236365199e-04</internalNodes>
          <leafValues>
            -4.1504874825477600e-01 2.1311603486537933e-01</leafValues></_>
        <_>
          <internalNodes>
            0 -1 78 -8.3156982436776161e-03</internalNodes>
          <leafValues>
            5.0222682952880859e-01 -1.6506242752075195e-01</leafValues></_>
        <_>
          <internalNodes>
            0 -1 59 2.6941727846860886e-02</internalNodes>
          <leafValues>
            -1.4654570817947388e-01 5.5613225698471069e-01</leafValues></_>
        <_>
          <internalNodes>
            0 -1 73 1.2499075382947922e-02</internalNodes>
          <leafValues>
            -1.7924630641937256e-01 5.1093441247940063e-01</leafValues></_>
        <_>
          <internalNodes>
            0 -1 95 1.3588414527475834e-02</internalNodes>
          <leafValues>
            -2.1279542148113251e-01 4.9204751849174500e-01</leafValues></_>
        <_>
          <internalNodes>
            0 -1 61 1.2936803977936506e-03</internalNodes>
          <leafValues>
            1.0183393210172653e-01 -1.1156113147735596e+00</leafValues></_>
        <_>
          <internalNodes>
            0 -1 0 2.6184301823377609e-03</internalNodes>
          <leafValues>
            -1.7760863900184631e-01 5.9060013294219971e-01</leafValues></_>
        <_>
          <internalNodes>
            0 -1 97 1.8031159415841103e-03</internalNodes>
          <leafValues>
            -1.7698587477207184e-01 5.5502325296401978e-01</leafValues></_>
        <_>
          <internalNodes>
            0 -1 10 -7.0783449336886406e-03</internalNodes>
          <leafValues>
            -7.1881800889968872e-01 1.3453999161720276e-01</leafValues></_>
        <_>
          <internalNodes>
            0 -1 23 4.4699274003505707e-03</internalNodes>
          <leafValues>
            -3.2188060879707336e-01 3.3954417705535889e-01</leafValues></_>
        <_>
          <internalNodes>
            0 -1 24 -3.7717155646532774e-04</internalNodes>
          <leafValues>
            3.4247413277626038e-01 -2.4162584543228149e-01</leafValues></_>
        <_>
          <internalNodes>
            0 -1 16 -1.4379222411662340e-03</internalNodes>
          <leafValues>
            6.1583209037780762e-01 -1.3580846786499023e-01</leafValues></_></weakClassifiers></_>
    <!-- stage 1 -->
    <_>
      <maxWeakCount>56</maxWeakCount>
      <stageThreshold>3.7358826398849487e-01</stageThreshold>
      <weakClassifiers>
        <_>
          <internalNodes>
            0 -1 6 -3.2418325543403625e-02</internalNodes>
          <leafValues>
            1.0065594911575317e+00 -3.3864176273345947e-01</leafValues></_>
        <_>
          <internalNodes>
            0 -1 82 -1.7127536237239838e-02</internalNodes>
          <leafValues>
            5.6438738107681274e-01 -4.6239620447158813e-01</leafValues></_>
        <_>
          <internalNodes>
            0 -1 53 1.9486609380692244e-03</internalNodes>
          <leafValues>
            -5.4333543777465820e-01 2.8389093279838562e-01</leafValues></_>
        <_>
          <internalNodes>
            0 -1 35 -8.7167806923389435e-03</internalNodes>
          <leafValues>
            3.6677119135856628e-01 -3.7445089221000671e-01</leafValues></_>
        <_>
          <internalNodes>
            0 -1 1 9.7681384067982435e-04</internalNodes>
          <leafValues>
            -5.2093738317489624e-01 2.3184667527675629e-01</leafValues></_>
        <_>
          <internalNodes>
            0 -1 42 1.6056222375482321e-03</internalNodes>
          <leafValues>
            1.5038646757602692e-01 -9.8409384489059448e-01</leafValues></_>
        <_>
          <internalNodes>
            0 -1 19 1.0995541512966156e-01</internalNodes>
          <leafValues>
            -1.1735756695270538e-01 1.4284499883651733e+00</leafValues></_>
        <_>
          <internalNodes>
            0 -1 93 -4.9751775804907084e-04</internalNodes>
          <leafValues>
            -6.1492794752120972e-01 1.6412381827831268e-01</leafValues></_>
        <_>
          <internalNodes>
            0 -1 69 2.2200557868927717e-03</internalNodes>
          <leafValues>
            1.1816255748271942e-01 -1.5516122579574585e+00</leafValues></_>
        <_>
          <internalNodes>
            0 -1 32 -4.7320470213890076e-02</internalNodes>
          <leafValues>
            4.5586985349655151e-01 -2.3435486853122711e-01</leafValues></_>
        <_>
          <internalNodes>
            0 -1 22 -1.4082249253988266e-02</internalNodes>
          <leafValues>
            1.7763721942901611e-01 -6.2525254487991333e-01</leafValues></_>
        <_>
          <internalNodes>
            0 -1 81 -2.8937328606843948e-03</internalNodes>
          <leafValues>
            -8.4859621524810791e-01 1.2803807854652405e-01</leafValues></_>
        <_>
          <internalNodes>
            0 -1 83 2.6306502521038055e-02</internalNodes>
          <leafValues>
            -2.2147963941097260e-01 5.3210902214050293e-01</leafValues></_>
        <_>
          <internalNodes>
            0 -1 55 -3.7809133529663086e-02</internalNodes>
          <leafValues>
            5.1805162429809570e-01 -1.9042804837226868e-01</leafValues></_>
        <_>
          <internalNodes>
            0 -1 79 -1.4096442610025406e-03</internalNodes>
          <leafValues>
            -1.2546241283416748e+00 1.1387382447719574e-01</leafValues></_>
        <_>
          <internalNodes>
            0 -1 36 -2.6163717266172171e-03</internalNodes>
          <leafValues>
            -1.1750613451004028e+00 1.0278119146823883e-01</leafValues></_>
        <_>
          <internalNodes>
            0 -1 11 1.4449290931224823e-02</internalNodes>
          <leafValues>
            -2.4340309202671051e-01 3.5753637552261353e-01</leafValues></_>
        <_>
          <internalNodes>
            0 -1 25 1.8105774652212858e-03</internalNodes>
          <leafValues>
            1.0973127186298370e-01 -9.1577440500259399e-01</leafValues></_>
        <_>
          <internalNodes>
            0 -1 0 1.2647151015698910e-03</internalNodes>
          <leafValues>
            -3.4253385663032532e-01 2.7344194054603577e-01</leafValues></_>
        <_>
          <internalNodes>
            0 -1 27 -3.6571450531482697e-02</internalNodes>
          <leafValues>
            6.3230216503143311e-01 -1.3435357809066772e-01</leafValues></_>
        <_>
          <internalNodes>
            0 -1 71 1.0111156851053238e-02</internalNodes>
          <leafValues>
            -2.6876056194305420e-01 3.0384430289268494e-01</leafValues></_>
        <_>
          <internalNodes>
            0 -1 34 1.8191635608673096e-03</internalNodes>
          <leafValues>
            1.1356166750192642e-01 -8.3804839849472046e-01</leafValues></_>
        <_>
          <internalNodes>
            0 -1 49 9.7620934247970581e-03</internalNodes>
          <leafValues>
            -1.7946700751781464e-01 4.3365797400474548e-01</leafValues></_>
        <_>
          <internalNodes>
            0 -1 75 3.1814821995794773e-03</internalNodes>
          <leafValues>
            9.3834951519966125e-02 -1.0593734979629517e+00</leafValues></_>
        <_>
          <internalNodes>
            0 -1 57 4.8990026116371155e-02</internalNodes>
          <leafValues>
            1.1143059283494949e-01 -8.5429471731185913e-01</leafValues></_>
        <_>
          <internalNodes>
            0 -1 63 6.3370682299137115e-02</internalNodes>
          <leafValues>
            -1.1190675944089890e-01 7.6478844881057739e-01</leafValues></_>
        <_>
          <internalNodes>
            0 -1 66 -8.0817248672246933e-03</internalNodes>
          <leafValues>
            5.5531972646713257e-01 -1.6761466860771179e-01</leafValues></_>
        <_>
          <internalNodes>
            0 -1 70 -7.8458047937601805e-04</internalNodes>
          <leafValues>
            -1.0926984548568726e+00 1.0351746529340744e-01</leafValues></_>
        <_>
          <internalNodes>
            0 -1 94 6.7047113552689552e-03</internalNodes>
          <leafValues>
            -1.3636569678783417e-01 5.1439225673675537e-01</leafValues></_>
        <_>
          <internalNodes>
            0 -1 96 -1.2043034657835960e-03</internalNodes>
          <leafValues>
            -1.1562652587890625e+00 8.1478856503963470e-02</leafValues></_>
        <_>
          <internalNodes>
            0 -1 38 -5.6502586230635643e-03</internalNodes>
          <leafValues>
            2.3765985667705536e-01 -2.8508254885673523e-01</leafValues></_>
        <_>
          <internalNodes>
            0 -1 39 -1.3998904265463352e-02</internalNodes>
          <leafValues>
            5.6584525108337402e-01 -1.2610563635826111e-01</leafValues></_>
        <_>
          <internalNodes>
            0 -1 43 -1.6708916518837214e-04</internalNodes>
          <leafValues>
            2.6566052436828613e-01 -2.6011246442794800e-01</leafValues></_>
        <_>
          <internalNodes>
            0 -1 8 2.2354129760060459e-04</internalNodes>
          <leafValues>
            -3.2377836108207703e-01 2.1950194239616394e-01</leafValues></_>
        <_>
          <internalNodes>
            0 -1 74 1.9254003418609500e-03</internalNodes>
          <leafValues>
            -1.8520087003707886e-01 4.5438516139984131e-01</leafValues></_>
        <_>
          <internalNodes>
            0 -1 90 4.9951748223975301e-04</internalNodes>
          <leafValues>
            1.6960370540618896e-01 -4.7132748365402222e-01</leafValues></_>
        <_>
          <internalNodes>
            0 -1 88 -1.7627081833779812e-03</internalNodes>
          <leafValues>
            -7.3535031080245972e-01 1.0043442994356155e-01</leafValues></_>
        <_>
          <internalNodes>
            0 -1 85 -3.4984432160854340e-02</internalNodes>
          <leafValues>
            4.0533089637756348e-01 -2.0480364561080933e-01</leafValues></_>
        <_>
          <internalNodes>
            0 -1 51 -2.3396167904138565e-02</internalNodes>
          <leafValues>
            4.0857174992561340e-01 -1.9479534029960632e-01</leafValues></_>
        <_>
          <internalNodes>
            0 -1 45 -1.1726788431406021e-01</internalNodes>
          <leafValues>
            6.6511029005050659e-01 -1.1936958134174347e-01</leafValues></_>
        <_>
          <internalNodes>
            0 -1 86 -1.2431286741048098e-03</internalNodes>
          <leafValues>
            -1.4432138204574585e+00 7.6845668256282806e-02</leafValues></_>
        <_>
          <internalNodes>
            0 -1 14 -2.7995809912681580e-02</internalNodes>
          <leafValues>
            6.4874130487442017e-01 -1.3355457782745361e-01</leafValues></_>
        <_>
          <internalNodes>
            0 -1 50 -4.0659839287400246e-03</internalNodes>
          <leafValues>
            3.8093176484107971e-01 -2.0342597365379333e-01</leafValues></_>
        <_>
          <internalNodes>
            0 -1 62 -2.7548074722290039e-03</internalNodes>
          <leafValues>
            -2.3437314033508301e+00 7.2571277618408203e-02</leafValues></_>
        <_>
          <internalNodes>
            0 -1 54 -2.2424971684813499e-03</internalNodes>
          <leafValues>
            2.7679607272148132e-01 -2.7286463975906372e-01</leafValues></_>
        <_>
          <internalNodes>
            0 -1 67 -2.4799930397421122e-03</internalNodes>
          <leafValues>
            4.7809982299804688e-01 -1.5536418557167053e-01</leafValues></_>
        <_>
          <internalNodes>
            0 -1 64 8.1306219100952148e-02</internalNodes>
          <leafValues>
            -1.1355353891849518e-01 7.8594565391540527e-01</leafValues></_>
        <_>
          <internalNodes>
            0 -1 4 2.6115684304386377e-03</internalNodes>
          <leafValues>
            -4.4147634506225586e-01 2.1614013612270355e-01</leafValues></_>
        <_>
          <internalNodes>
            0 -1 31 1.6004215925931931e-02</internalNodes>
          <leafValues>
            -9.7955822944641113e-02 9.3457388877868652e-01</leafValues></_>
        <_>
          <internalNodes>
            0 -1 33 -3.0216029845178127e-03</internalNodes>
          <leafValues>
            2.7775898575782776e-01 -3.0987957119941711e-01</leafValues></_>
        <_>
          <internalNodes>
            0 -1 89 -2.9719452140852809e-04</internalNodes>
          <leafValues>
            2.5068259239196777e-01 -2.6578342914581299e-01</leafValues></_>
        <_>
          <internalNodes>
            0 -1 65 -2.3864866234362125e-03</internalNodes>
          <leafValues>
            -7.3074960708618164e-01 1.1335104703903198e-01</leafValues></_>
        <_>
          <internalNodes>
            0 -1 41 -1.7785061150789261e-02</internalNodes>
          <leafValues>
            4.5383274555206299e-01 -1.5834298729896545e-01</leafValues></_>
        <_>
          <internalNodes>
            0 -1 91 -8.1176927778869867e-04</internalNodes>
          <leafValues>
            -9.9780380725860596e-01 9.6844792366027832e-02</leafValues></_>
        <_>
          <internalNodes>
            0 -1 29 8.9577061589807272e-04</internalNodes>
          <leafValues>
            -1.4076450467109680e-01 4.6642905473709106e-01</leafValues></_>
        <_>
          <internalNodes>
            0 -1 60 -7.8261736780405045e-03</internalNodes>
          <leafValues>
            2.5965487957000732e-01 -2.6489117741584778e-01</leafValues></_></weakClassifiers></_></stages>
  <features>
    <_>
      <rects>
        <_>
          0 0 1 2 -1.</_>
        <_>
          0 1 1 1 2.</_></rects>
      <tilted>0</tilted></_>
    <_>
      <rects>
        <_>
          0 0 2 2 -1.</_>
        <_>
          1 0 1 2 2.</_></rects>
      <tilted>0</tilted></_>
    <_>
      <rects>
        <_>
          0 0 1 6 -1.</_>
        <_>
          0 2 1 2 3.</_></rects>
      <tilted>0</tilted></_>
    <_>
      <rects>
        <_>
          0 0 2 10 -1.</_>
        <_>
          1 0 1 10 2.</_></rects>
      <tilted>0</tilted></_>
    <_>
      <rects>
        <_>
          0 0 4 2 -1.</_>
        <_>
          2 0 2 2 2.</_></rects>
      <tilted>0</tilted></_>
    <_>
      <rects>
        <_>
          0 0 8 2 -1.</_>
        <_>
          0 0 4 1 2.</_>
        <_>
          4 1 4 1 2.</_></rects>
      <tilted>0</tilted></_>
    <_>
      <rects>
        <_>
          0 0 8 4 -1.</_>
        <_>
          0 0 4 2 2.</_>
        <_>
          4 2 4 2 2.</_></rects>
      <tilted>0</tilted></_>
    <_>
      <rects>
        <_>
          0 0 10 4 -1.</_>
        <_>
          5 0 5 4 2.</_></rects>
      <tilted>0</tilted></_>
    <_>
      <rects>
        <_>
          0 1 1 3 -1.</_>
        <_>
          0 2 1 1 3.</_></rects>
      <tilted>0</tilted></_>
    <_>
      <rects>
        <_>
          0 3 2 22 -1.</_>
        <_>
          0 14 2 11 2.</_></rects>
      <tilted>0</tilted></_>
    <_>
      <rects>
        <_>
          0 6 3 6 -1.</_>
        <_>
          1 6 1 6 3.</_></rects>
      <tilted>0</tilted></_>
    <_>
      <rects>
        <_>
          0 6 4 7 -1.</_>
        <_>
          2 6 2 7 2.</_></rects>
      <tilted>0</tilted></_>
    <_>
      <rects>
        <_>
          0 9 5 3 -1.</_>
        <_>
          0 10 5 1 3.</_></rects>
      <tilted>0</tilted></_>
    <_>
      <rects>
        <_>
          0 9 7 12 -1.</_>
        <_>
          0 13 7 4 3.</_></rects>
      <tilted>0</tilted></_>
    <_>
      <rects>
        <_>
          0 11 6 12 -1.</_>
        <_>
          2 11 2 12 3.</_></rects>
      <tilted>0</tilted></_>
    <_>
      <rects>
        <_>
          0 12 2 2 -1.</_>
        <_>
          0 13 2 1 2.</_></rects>
      <tilted>0</tilted></_>
    <_>
      <rects>
        <_>
          0 15 2 3 -1.</_>
        <_>
          0 16 2 1 3.</_></rects>
      <tilted>0</tilted></_>
    <_>
      <rects>
        <_>
          1 0 2 1 -1.</_>
        <_>
          2 0 1 1 2.</_></rects>
      <tilted>0</tilted></_>
    <_>
      <rects>
        <_>
          1 0 12 1 -1.</_>
        <_>
          5 0 4 1 3.</_></rects>
      <tilted>0</tilted></_>
    <_>
      <rects>
        <_>
          1 0 12 2 -1.</_>
        <_>
          5 0 4 2 3.</_></rects>
      <tilted>0</tilted></_>
    <_>
      <rects>
        <_>
          1 0 10 15 -1.</_>
        <_>
          1 5 10 5 3.</_></rects>
      <tilted>0</tilted></_>
    <_>
      <rects>
        <_>
          1 0 11 24 -1.</_>
        <_>
          1 12 11 12 2.</_></rects>
      <tilted>0</tilted></_>
    <_>
      <rects>
        <_>
          1 1 13 22 -1.</_>
        <_>
          1 12 13 11 2.</_></rects>
      <tilted>0</tilted></_>
    <_>
      <rects>
        <_>
          1 2 2 7 -1.</_>
        <_>
          2 2 1 7 2.</_></rects>
      <tilted>0</tilted></_>
    <_>
      <rects>
        <_>
          1 5 1 2 -1.</_>
        <_>
          1 6 1 1 2.</_></rects>
      <tilted>0</tilted></_>
    <_>
      <rects>
        <_>
          1 6 1 3 -1.</_>
        <_>
          1 7 1 1 3.</_></rects>
      <tilted>0</tilted></_>
    <_>
      <rects>
        <_>
          1 6 2 6 -1.</_>
        <_>
          2 6 1 6 2.</_></rects>
      <tilted>0</tilted></_>
    <_>
      <rects>
        <_>
          1 6 4 16 -1.</_>
        <_>
          3 6 2 16 2.</_></rects>
      <tilted>0</tilted></_>
    <_>
      <rects>
        <_>
          1 17 14 2 -1.</_>
        <_>
          1 18 14 1 2.</_></rects>
      <tilted>0</tilted></_>
    <_>
      <rects>
        <_>
          1 22 2 1 -1.</_>
        <_>
          2 22 1 1 2.</_></rects>
      <tilted>0</tilted></_>
    <_>
      <rects>
        <_>
          1 22 6 2 -1.</_>
        <_>
          4 22 3 2 2.</_></rects>
      <tilted>0</tilted></_>
    <_>
      <rects>
        <_>
          2 0 4 6 -1.</_>
        <_>
          2 0 2 3 2.</_>
        <_>
          4 3 2 3 2.</_></rects>
      <tilted>0</tilted></_>
    <_>
      <rects>
        <_>
          2 0 9 18 -1.</_>
        <_>
          5 0 3 18 3.</_></rects>
      <tilted>0</tilted></_>
    <_>
      <rects>
        <_>
          2 1 6 2 -1.</_>
        <_>
          2 1 3 1 2.</_>
        <_>
          5 2 3 1 2.</_></rects>
      <tilted>0</tilted></_>
    <_>
      <rects>
        <_>
          2 4 1 3 -1.</_>
        <_>
          2 5 1 1 3.</_></rects>
      <tilted>0</tilted></_>
    <_>
      <rects>
        <_>
          2 17 12 5 -1.</_>
        <_>
          6 17 4 5 3.</_></rects>
      <tilted>0</tilted></_>
    <_>
      <rects>
        <_>
          3 0 1 3 -1.</_>
        <_>
          3 1 1 1 3.</_></rects>
      <tilted>0</tilted></_>
    <_>
      <rects>
        <_>
          3 1 1 3 -1.</_>
        <_>
          3 2 1 1 3.</_></rects>
      <tilted>0</tilted></_>
    <_>
      <rects>
        <_>
          3 1 1 10 -1.</_>
        <_>
          3 6 1 5 2.</_></rects>
      <tilted>0</tilted></_>
    <_>
      <rects>
        <_>
          3 1 4 6 -1.</_>
        <_>
          3 1 2 3 2.</_>
        <_>
          5 4 2 3 2.</_></rects>
      <tilted>0</tilted></_>
    <_>
      <rects>
        <_>
          3 2 1 3 -1.</_>
        <_>
          3 3 1 1 3.</_></rects>
      <tilted>0</tilted></_>
    <_>
      <rects>
        <_>
          3 3 9 6 -1.</_>
        <_>
          3 5 9 2 3.</_></rects>
      <tilted>0</tilted></_>
    <_>
      <rects>
        <_>
          3 10 1 3 -1.</_>
        <_>
          3 11 1 1 3.</_></rects>
      <tilted>0</tilted></_>
    <_>
      <rects>
        <_>
          3 11 1 2 -1.</_>
        <_>
          3 12 1 1 2.</_></rects>
      <tilted>0</tilted></_>
    <_>
      <rects>
        <_>
          3 12 6 6 -1.</_>
        <_>
          3 12 3 3 2.</_>
        <_>
          6 15 3 3 2.</_></rects>
      <tilted>0</tilted></_>
    <_>
      <rects>
        <_>
          3 17 10 8 -1.</_>
        <_>
          3 21 10 4 2.</_></rects>
      <tilted>0</tilted></_>
    <_>
      <rects>
        <_>
          4 0 1 3 -1.</_>
        <_>
          4 1 1 1 3.</_></rects>
      <tilted>0</tilted></_>
    <_>
      <rects>
        <_>
          4 0 1 6 -1.</_>
        <_>
          4 3 1 3 2.</_></rects>
      <tilted>0</tilted></_>
    <_>
      <rects>
        <_>
          4 0 2 6 -1.</_>
        <_>
          4 0 1 3 2.</_>
        <_>
          5 3 1 3 2.</_></rects>
      <tilted>0</tilted></_>
    <_>
      <rects>
        <_>
          4 2 6 8 -1.</_>
        <_>
          4 2 3 4 2.</_>
        <_>
          7 6 3 4 2.</_></rects>
      <tilted>0</tilted></_>
    <_>
      <rects>
        <_>
          4 6 3 15 -1.</_>
        <_>
          5 6 1 15 3.</_></rects>
      <tilted>0</tilted></_>
    <_>
      <rects>
        <_>
          4 10 9 10 -1.</_>
        <_>
          7 10 3 10 3.</_></rects>
      <tilted>0</tilted></_>
    <_>
      <rects>
        <_>
          5 0 9 1 -1.</_>
        <_>
          8 0 3 1 3.</_></rects>
      <tilted>0</tilted></_>
    <_>
      <rects>
        <_>
          5 0 10 2 -1.</_>
        <_>
          5 0 5 1 2.</_>
        <_>
          10 1 5 1 2.</_></rects>
      <tilted>0</tilted></_>
    <_>
      <rects>
        <_>
          5 1 2 6 -1.</_>
        <_>
          5 3 2 2 3.</_></rects>
      <tilted>0</tilted></_>
    <_>
      <rects>
        <_>
          5 2 9 11 -1.</_>
        <_>
          8 2 3 11 3.</_></rects>
      <tilted>0</tilted></_>
    <_>
      <rects>
        <_>
          5 5 5 8 -1.</_>
        <_>
          5 9 5 4 2.</_></rects>
      <tilted>0</tilted></_>
    <_>
      <rects>
        <_>
          5 8 3 16 -1.</_>
        <_>
          5 16 3 8 2.</_></rects>
      <tilted>0</tilted></_>
    <_>
      <rects>
        <_>
          6 0 2 3 -1.</_>
        <_>
          6 1 2 1 3.</_></rects>
      <tilted>0</tilted></_>
    <_>
      <rects>
        <_>
          6 0 8 4 -1.</_>
        <_>
          6 0 4 2 2.</_>
        <_>
          10 2 4 2 2.</_></rects>
      <tilted>0</tilted></_>
    <_>
      <rects>
        <_>
          6 6 3 6 -1.</_>
        <_>
          6 9 3 3 2.</_></rects>
      <tilted>0</tilted></_>
    <_>
      <rects>
        <_>
          6 19 1 3 -1.</_>
        <_>
          6 20 1 1 3.</_></rects>
      <tilted>0</tilted></_>
    <_>
      <rects>
        <_>
          6 22 1 3 -1.</_>
        <_>
          6 23 1 1 3.</_></rects>
      <tilted>0</tilted></_>
    <_>
      <rects>
        <_>
          7 0 8 6 -1.</_>
        <_>
          7 0 4 3 2.</_>
        <_>
          11 3 4 3 2.</_></rects>
      <tilted>0</tilted></_>
    <_>
      <rects>
        <_>
          7 0 8 10 -1.</_>
        <_>
          7 0 4 5 2.</_>
        <_>
          11 5 4 5 2.</_></rects>
      <tilted>0</tilted></_>
    <_>
      <rects>
        <_>
          7 5 2 3 -1.</_>
        <_>
          7 6 2 1 3.</_></rects>
      <tilted>0</tilted></_>
    <_>
      <rects>
        <_>
          8 0 4 6 -1.</_>
        <_>
          8 0 2 3 2.</_>
        <_>
          10 3 2 3 2.</_></rects>
      <tilted>0</tilted></_>
    <_>
      <rects>
        <_>
          8 4 2 4 -1.</_>
        <_>
          9 4 1 4 2.</_></rects>
      <tilted>0</tilted></_>
    <_>
      <rects>
        <_>
          8 12 7 9 -1.</_>
        <_>
          8 15 7 3 3.</_></rects>
      <tilted>0</tilted></_>
    <_>
      <rects>
        <_>
          8 17 1 3 -1.</_>
        <_>
          8 18 1 1 3.</_></rects>
      <tilted>0</tilted></_>
    <_>
      <rects>
        <_>
          8 22 2 2 -1.</_>
        <_>
          8 22 1 1 2.</_>
        <_>
          9 23 1 1 2.</_></rects>
      <tilted>0</tilted></_>
    <_>
      <rects>
        <_>
          9 0 6 6 -1.</_>
        <_>
          9 2 6 2 3.</_></rects>
      <tilted>0</tilted></_>
    <_>
      <rects>
        <_>
          9 7 2 2 -1.</_>
        <_>
          9 7 1 1 2.</_>
        <_>
          10 8 1 1 2.</_></rects>
      <tilted>0</tilted></_>
    <_>
      <rects>
        <_>
          9 15 6 8 -1.</_>
        <_>
          9 15 3 4 2.</_>
        <_>
          12 19 3 4 2.</_></rects>
      <tilted>0</tilted></_>
    <_>
      <rects>
        <_>
          9 24 4 1 -1.</_>
        <_>
          11 24 2 1 2.</_></rects>
      <tilted>0</tilted></_>
    <_>
      <rects>
        <_>
          10 0 1 3 -1.</_>
        <_>
          10 1 1 1 3.</_></rects>
      <tilted>0</tilted></_>
    <_>
      <rects>
        <_>
          10 0 5 4 -1.</_>
        <_>
          10 2 5 2 2.</_></rects>
      <tilted>0</tilted></_>
    <_>
      <rects>
        <_>
          10 9 4 15 -1.</_>
        <_>
          10 14 4 5 3.</_></rects>
      <tilted>0</tilted></_>
    <_>
      <rects>
        <_>
          10 11 2 9 -1.</_>
        <_>
          10 14 2 3 3.</_></rects>
      <tilted>0</tilted></_>
    <_>
      <rects>
        <_>
          10 16 1 3 -1.</_>
        <_>
          10 17 1 1 3.</_></rects>
      <tilted>0</tilted></_>
    <_>
      <rects>
        <_>
          11 0 4 1 -1.</_>
        <_>
          13 0 2 1 2.</_></rects>
      <tilted>0</tilted></_>
    <_>
      <rects>
        <_>
          11 0 2 3 -1.</_>
        <_>
          11 1 2 1 3.</_></rects>
      <tilted>0</tilted></_>
    <_>
      <rects>
        <_>
          11 0 4 8 -1.</_>
        <_>
          13 0 2 8 2.</_></rects>
      <tilted>0</tilted></_>
    <_>
      <rects>
        <_>
          11 0 4 6 -1.</_>
        <_>
          11 3 4 3 2.</_></rects>
      <tilted>0</tilted></_>
    <_>
      <rects>
        <_>
          11 1 3 12 -1.</_>
        <_>
          11 7 3 6 2.</_></rects>
      <tilted>0</tilted></_>
    <_>
      <rects>
        <_>
          11 2 4 22 -1.</_>
        <_>
          13 2 2 22 2.</_></rects>
      <tilted>0</tilted></_>
    <_>
      <rects>
        <_>
          11 16 2 2 -1.</_>
        <_>
          11 16 1 1 2.</_>
        <_>
          12 17 1 1 2.</_></rects>
      <tilted>0</tilted></_>
    <_>
      <rects>
        <_>
          12 0 3 9 -1.</_>
        <_>
          12 3 3 3 3.</_></rects>
      <tilted>0</tilted></_>
    <_>
      <rects>
        <_>
          12 2 3 1 -1.</_>
        <_>
          13 2 1 1 3.</_></rects>
      <tilted>0</tilted></_>
    <_>
      <rects>
        <_>
          12 5 1 2 -1.</_>
        <_>
          12 6 1 1 2.</_></rects>
      <tilted>0</tilted></_>
    <_>
      <rects>
        <_>
          12 11 3 1 -1.</_>
        <_>
          13 11 1 1 3.</_></rects>
      <tilted>0</tilted></_>
    <_>
      <rects>
        <_>
          12 14 2 2 -1.</_>
        <_>
          12 14 1 1 2.</_>
        <_>
          13 15 1 1 2.</_></rects>
      <tilted>0</tilted></_>
    <_>
      <rects>
        <_>
          12 22 3 1 -1.</_>
        <_>
          13 22 1 1 3.</_></rects>
      <tilted>0</tilted></_>
    <_>
      <rects>
        <_>
          13 0 2 2 -1.</_>
        <_>
          13 0 1 1 2.</_>
        <_>
          14 1 1 1 2.</_></rects>
      <tilted>0</tilted></_>
    <_>
      <rects>
        <_>
          13 11 2 14 -1.</_>
        <_>
          13 11 1 7 2.</_>
        <_>
          14 18 1 7 2.</_></rects>
      <tilted>0</tilted></_>
    <_>
      <rects>
        <_>
          13 11 2 12 -1.</_>
        <_>
          13 15 2 4 3.</_></rects>
      <tilted>0</tilted></_>
    <_>
      <rects>
        <_>
          13 12 2 2 -1.</_>
        <_>
          13 12 1 1 2.</_>
        <_>
          14 13 1 1 2.</_></rects>
      <tilted>0</tilted></_>
    <_>
      <rects>
        <_>
          13 21 2 4 -1.</_>
        <_>
          13 23 2 2 2.</_></rects>
      <tilted>0</tilted></_>
    <_>
      <rects>
        <_>
          14 0 1 2 -1.</_>
        <_>
          14 1 1 1 2.</_></rects>
      <tilted>0</tilted></_>
    <_>
      <rects>
        <_>
          14 10 1 15 -1.</_>
        <_>
          14 15 1 5 3.</_></rects>
      <tilted>0</tilted></_></features></cascade>
</opencv_storage>
